<?xml version="1.0"?>
<opencv_storage>
<cascade>
  <stageType>BOOST</stageType>
  <featureType>HAAR</featureType>
  <height>20</height>
  <width>20</width>
  <stageParams>
    <boostType>GAB</boostType>
    <minHitRate>9.9500000476837158e-01</minHitRate>
    <maxFalseAlarm>5.0000000000000000e-01</maxFalseAlarm>
    <weightTrimRate>9.4999999999999996e-01</weightTrimRate>
    <maxDepth>1</maxDepth>
    <maxWeakCount>100</maxWeakCount></stageParams>
  <featureParams>
    <maxCatCount>0</maxCatCount>
    <featSize>1</featSize>
    <mode>BASIC</mode></featureParams>
  <stageNum>14</stageNum>
  <stages>
    <!-- stage 0 -->
    <_>
      <maxWeakCount>2</maxWeakCount>
      <stageThreshold>-9.4249635934829712e-02</stageThreshold>
      <weakClassifiers>
        <_>
          <internalNodes>
            0 -1 22 -1.5583714842796326e-01</internalNodes>
          <leafValues>
            9.3271839618682861e-01 -9.5565927028656006e-01</leafValues></_>
        <_>
          <internalNodes>
            0 -1 38 2.8839096426963806e-02</internalNodes>
          <leafValues>
            -8.2469987869262695e-01 8.6140966415405273e-01</leafValues></_></weakClassifiers></_>
    <!-- stage 1 -->
    <_>
      <maxWeakCount>2</maxWeakCount>
      <stageThreshold>-1.1862557381391525e-01</stageThreshold>
      <weakClassifiers>
        <_>
          <internalNodes>
            0 -1 13 1.4625897631049156e-02</internalNodes>
          <leafValues>
            -9.1191709041595459e-01 8.3195018768310547e-01</leafValues></_>
        <_>
          <internalNodes>
            0 -1 43 -8.1268399953842163e-02</internalNodes>
          <leafValues>
            7.9329150915145874e-01 -7.6540005207061768e-01</leafValues></_></weakClassifiers></_>
    <!-- stage 2 -->
    <_>
      <maxWeakCount>3</maxWeakCount>
      <stageThreshold>-8.4368455410003662e-01</stageThreshold>
      <weakClassifiers>
        <_>
          <internalNodes>
            0 -1 16 1.6456754878163338e-02</internalNodes>
          <leafValues>
            -8.6786788702011108e-01 7.2664701938629150e-01</leafValues></_>
        <_>
          <internalNodes>
            0 -1 35 6.9252580404281616e-02</internalNodes>
          <leafValues>
            -7.1254485845565796e-01 6.9364106655120850e-01</leafValues></_>
        <_>
          <internalNodes>
            0 -1 7 -4.0034884586930275e-03</internalNodes>
          <leafValues>
            4.9850153923034668e-01 -8.5778665542602539e-01</leafValues></_></weakClassifiers></_>
    <!-- stage 3 -->
    <_>
      <maxWeakCount>3</maxWeakCount>
      <stageThreshold>-3.5027495026588440e-01</stageThreshold>
      <weakClassifiers>
        <_>
          <internalNodes>
            0 -1 34 -3.1879004091024399e-02</internalNodes>
          <leafValues>
            7.6636022329330444e-01 -6.0752058029174805e-01</leafValues></_>
        <_>
          <internalNodes>
            0 -1 39 3.9710819721221924e-02</internalNodes>
          <leafValues>
            -5.2503943443298340e-01 8.3629375696182251e-01</leafValues></_>
        <_>
          <internalNodes>
            0 -1 4 9.0828202664852142e-03</internalNodes>
          <leafValues>
            -5.5802243947982788e-01 7.8228503465652466e-01</leafValues></_></weakClassifiers></_>
    <!-- stage 4 -->
    <_>
      <maxWeakCount>5</maxWeakCount>
      <stageThreshold>-7.0838934183120728e-01</stageThreshold>
      <weakClassifiers>
        <_>
          <internalNodes>
            0 -1 33 5.8350741863250732e-02</internalNodes>
          <leafValues>
            -6.6322010755538940e-01 6.6683143377304077e-01</leafValues></_>
        <_>
          <internalNodes>
            0 -1 57 6.9600827991962433e-03</internalNodes>
          <leafValues>
            -7.2630161046981812e-01 5.8998012542724609e-01</leafValues></_>
        <_>
          <internalNodes>
            0 -1 25 -1.0801060125231743e-02</internalNodes>
          <leafValues>
            6.5266138315200806e-01 -5.7881152629852295e-01</leafValues></_>
        <_>
          <internalNodes>
            0 -1 26 9.1001261025667191e-03</internalNodes>
          <leafValues>
            -5.0479334592819214e-01 6.8228620290756226e-01</leafValues></_>
        <_>
          <internalNodes>
            0 -1 8 -3.4842060413211584e-03</internalNodes>
          <leafValues>
            4.4845551252365112e-01 -7.4320924282073975e-01</leafValues></_></weakClassifiers></_>
    <!-- stage 5 -->
    <_>
      <maxWeakCount>5</maxWeakCount>
      <stageThreshold>-8.7986677885055542e-01</stageThreshold>
      <weakClassifiers>
        <_>
          <internalNodes>
            0 -1 19 9.6838325262069702e-02</internalNodes>
          <leafValues>
            -8.1040894985198975e-01 6.1794632673263550e-01</leafValues></_>
        <_>
          <internalNodes>
            0 -1 62 -1.0443568229675293e-02</internalNodes>
          <leafValues>
            7.5394916534423828e-01 -4.9214246869087219e-01</leafValues></_>
        <_>
          <internalNodes>
            0 -1 1 1.2270648032426834e-02</internalNodes>
          <leafValues>
            -5.4530966281890869e-01 6.2570255994796753e-01</leafValues></_>
        <_>
          <internalNodes>
            0 -1 29 1.0398316197097301e-02</internalNodes>
          <leafValues>
            -7.3498684167861938e-01 4.2598447203636169e-01</leafValues></_>
        <_>
          <internalNodes>
            0 -1 48 3.4970376873388886e-04</internalNodes>
          <leafValues>
            2.7462589740753174e-01 -9.8299676179885864e-01</leafValues></_></weakClassifiers></_>
    <!-- stage 6 -->
    <_>
      <maxWeakCount>4</maxWeakCount>
      <stageThreshold>-3.4634873270988464e-01</stageThreshold>
      <weakClassifiers>
        <_>
          <internalNodes>
            0 -1 49 -2.7827982557937503e-04</internalNodes>
          <leafValues>
            -8.7722772359848022e-01 6.1184507608413696e-01</leafValues></_>
        <_>
          <internalNodes>
            0 -1 9 1.9772317260503769e-02</internalNodes>
          <leafValues>
            -8.9673203229904175e-01 3.7710845470428467e-01</leafValues></_>
        <_>
          <internalNodes>
            0 -1 10 8.6031444370746613e-03</internalNodes>
          <leafValues>
            -5.8401018381118774e-01 4.9633586406707764e-01</leafValues></_>
        <_>
          <internalNodes>
            0 -1 31 1.6276193782687187e-02</internalNodes>
          <leafValues>
            -3.4256532788276672e-01 8.1957012414932251e-01</leafValues></_></weakClassifiers></_>
    <!-- stage 7 -->
    <_>
      <maxWeakCount>7</maxWeakCount>
      <stageThreshold>-1.1603555679321289e+00</stageThreshold>
      <weakClassifiers>
        <_>
          <internalNodes>
            0 -1 17 -6.8263694643974304e-02</internalNodes>
          <leafValues>
            5.7942235469818115e-01 -7.9338842630386353e-01</leafValues></_>
        <_>
          <internalNodes>
            0 -1 61 -1.1692184954881668e-02</internalNodes>
          <leafValues>
            6.4057797193527222e-01 -4.5480147004127502e-01</leafValues></_>
        <_>
          <internalNodes>
            0 -1 11 -9.7227683290839195e-03</internalNodes>
          <leafValues>
            5.8863323926925659e-01 -4.3620201945304871e-01</leafValues></_>
        <_>
          <internalNodes>
            0 -1 46 -2.2539588098879904e-04</internalNodes>
          <leafValues>
            -9.5906209945678711e-01 2.6824107766151428e-01</leafValues></_>
        <_>
          <internalNodes>
            0 -1 50 1.5635992167517543e-03</internalNodes>
          <leafValues>
            -7.7712190151214600e-01 2.9388114809989929e-01</leafValues></_>
        <_>
          <internalNodes>
            0 -1 21 -1.2480190023779869e-02</internalNodes>
          <leafValues>
            4.7902500629425049e-01 -5.0462329387664795e-01</leafValues></_>
        <_>
          <internalNodes>
            0 -1 6 9.5351366326212883e-04</internalNodes>
          <leafValues>
            -5.4148733615875244e-01 4.3135800957679749e-01</leafValues></_></weakClassifiers></_>
    <!-- stage 8 -->
    <_>
      <maxWeakCount>5</maxWeakCount>
      <stageThreshold>-9.4130229949951172e-01</stageThreshold>
      <weakClassifiers>
        <_>
          <internalNodes>
            0 -1 40 -2.5031820405274630e-04</internalNodes>
          <leafValues>
            -9.2650920152664185e-01 5.4031908512115479e-01</leafValues></_>
        <_>
          <internalNodes>
            0 -1 36 -2.0253297407180071e-04</internalNodes>
          <leafValues>
            -9.1568011045455933e-01 2.8078699111938477e-01</leafValues></_>
        <_>
          <internalNodes>
            0 -1 2 1.5107994899153709e-02</internalNodes>
          <leafValues>
            -4.8514819145202637e-01 5.2435922622680664e-01</leafValues></_>
        <_>
          <internalNodes>
            0 -1 60 4.7735930420458317e-03</internalNodes>
          <leafValues>
            -6.0736322402954102e-01 4.2304572463035583e-01</leafValues></_>
        <_>
          <internalNodes>
            0 -1 42 5.8261580765247345e-02</internalNodes>
          <leafValues>
            -6.6989696025848389e-01 3.9877718687057495e-01</leafValues></_></weakClassifiers></_>
    <!-- stage 9 -->
    <_>
      <maxWeakCount>6</maxWeakCount>
      <stageThreshold>-5.4523146152496338e-01</stageThreshold>
      <weakClassifiers>
        <_>
          <internalNodes>
            0 -1 54 -5.7858234504237771e-04</internalNodes>
          <leafValues>
            -8.9920425415039062e-01 5.3336203098297119e-01</leafValues></_>
        <_>
          <internalNodes>
            0 -1 12 1.0651247575879097e-02</internalNodes>
          <leafValues>
            -7.1022772789001465e-01 3.5375711321830750e-01</leafValues></_>
        <_>
          <internalNodes>
            0 -1 52 -8.3996988832950592e-03</internalNodes>
          <leafValues>
            2.8873994946479797e-01 -7.9162138700485229e-01</leafValues></_>
        <_>
          <internalNodes>
            0 -1 20 5.0453217700123787e-03</internalNodes>
          <leafValues>
            -7.2212052345275879e-01 3.1460240483283997e-01</leafValues></_>
        <_>
          <internalNodes>
            0 -1 37 1.0863985866308212e-02</internalNodes>
          <leafValues>
            -3.8529494404792786e-01 7.5187772512435913e-01</leafValues></_>
        <_>
          <internalNodes>
            0 -1 41 5.7234885171055794e-03</internalNodes>
          <leafValues>
            -5.0074905157089233e-01 4.9394822120666504e-01</leafValues></_></weakClassifiers></_>
    <!-- stage 10 -->
    <_>
      <maxWeakCount>6</maxWeakCount>
      <stageThreshold>-9.3460220098495483e-01</stageThreshold>
      <weakClassifiers>
        <_>
          <internalNodes>
            0 -1 55 -1.7664587358012795e-04</internalNodes>
          <leafValues>
            -7.0682728290557861e-01 5.6857401132583618e-01</leafValues></_>
        <_>
          <internalNodes>
            0 -1 15 4.9987565726041794e-03</internalNodes>
          <leafValues>
            -8.5146045684814453e-01 2.9717037081718445e-01</leafValues></_>
        <_>
          <internalNodes>
            0 -1 27 -1.4364022761583328e-02</internalNodes>
          <leafValues>
            4.8843166232109070e-01 -4.7104567289352417e-01</leafValues></_>
        <_>
          <internalNodes>
            0 -1 5 1.6173234209418297e-02</internalNodes>
          <leafValues>
            -3.5131937265396118e-01 6.3672965764999390e-01</leafValues></_>
        <_>
          <internalNodes>
            0 -1 14 -3.9272308349609375e-02</internalNodes>
          <leafValues>
            6.9208902120590210e-01 -3.5843285918235779e-01</leafValues></_>
        <_>
          <internalNodes>
            0 -1 63 -9.9712349474430084e-03</internalNodes>
          <leafValues>
            5.7578283548355103e-01 -4.5896691083908081e-01</leafValues></_></weakClassifiers></_>
    <!-- stage 11 -->
    <_>
      <maxWeakCount>5</maxWeakCount>
      <stageThreshold>-8.9093255996704102e-01</stageThreshold>
      <weakClassifiers>
        <_>
          <internalNodes>
            0 -1 28 4.1708812117576599e-02</internalNodes>
          <leafValues>
            5.3992229700088501e-01 -9.1644906997680664e-01</leafValues></_>
        <_>
          <internalNodes>
            0 -1 47 -2.8078907052986324e-04</internalNodes>
          <leafValues>
            -9.1437751054763794e-01 2.6313152909278870e-01</leafValues></_>
        <_>
          <internalNodes>
            0 -1 3 1.1259065940976143e-02</internalNodes>
          <leafValues>
            -5.7669734954833984e-01 3.6644107103347778e-01</leafValues></_>
        <_>
          <internalNodes>
            0 -1 32 -9.0838298201560974e-02</internalNodes>
          <leafValues>
            3.0368492007255554e-01 -7.4542826414108276e-01</leafValues></_>
        <_>
          <internalNodes>
            0 -1 59 -1.4125242829322815e-02</internalNodes>
          <leafValues>
            6.4540696144104004e-01 -3.7186074256896973e-01</leafValues></_></weakClassifiers></_>
    <!-- stage 12 -->
    <_>
      <maxWeakCount>6</maxWeakCount>
      <stageThreshold>-6.1880713701248169e-01</stageThreshold>
      <weakClassifiers>
        <_>
          <internalNodes>
            0 -1 45 -2.2900704061612487e-04</internalNodes>
          <leafValues>
            -9.4752186536788940e-01 5.1972848176956177e-01</leafValues></_>
        <_>
          <internalNodes>
            0 -1 24 -8.9130606502294540e-03</internalNodes>
          <leafValues>
            4.3844786286354065e-01 -5.6541866064071655e-01</leafValues></_>
        <_>
          <internalNodes>
            0 -1 42 6.5715745091438293e-02</internalNodes>
          <leafValues>
            -5.6786614656448364e-01 4.8002463579177856e-01</leafValues></_>
        <_>
          <internalNodes>
            0 -1 23 -4.3132305145263672e-03</internalNodes>
          <leafValues>
            3.8592958450317383e-01 -5.9754806756973267e-01</leafValues></_>
        <_>
          <internalNodes>
            0 -1 37 1.1998709291219711e-02</internalNodes>
          <leafValues>
            -3.7583428621292114e-01 7.7483052015304565e-01</leafValues></_>
        <_>
          <internalNodes>
            0 -1 44 2.1374870266299695e-04</internalNodes>
          <leafValues>
            3.8362458348274231e-01 -7.8725272417068481e-01</leafValues></_></weakClassifiers></_>
    <!-- stage 13 -->
    <_>
      <maxWeakCount>7</maxWeakCount>
      <stageThreshold>-9.3389761447906494e-01</stageThreshold>
      <weakClassifiers>
        <_>
          <internalNodes>
            0 -1 30 8.2636304432526231e-04</internalNodes>
          <leafValues>
            -7.3577237129211426e-01 5.7155799865722656e-01</leafValues></_>
        <_>
          <internalNodes>
            0 -1 53 -1.6700483858585358e-02</internalNodes>
          <leafValues>
            -8.3586567640304565e-01 3.3367291092872620e-01</leafValues></_>
        <_>
          <internalNodes>
            0 -1 0 8.9405085891485214e-03</internalNodes>
          <leafValues>
            -6.3414794206619263e-01 3.9710909128189087e-01</leafValues></_>
        <_>
          <internalNodes>
            0 -1 51 -2.0116564701311290e-04</internalNodes>
          <leafValues>
            -7.3127013444900513e-01 3.5254731774330139e-01</leafValues></_>
        <_>
          <internalNodes>
            0 -1 58 1.1552892625331879e-02</internalNodes>
          <leafValues>
            -3.4856563806533813e-01 8.2986223697662354e-01</leafValues></_>
        <_>
          <internalNodes>
            0 -1 18 -2.0830058929277584e-05</internalNodes>
          <leafValues>
            2.9662385582923889e-01 -8.5447466373443604e-01</leafValues></_>
        <_>
          <internalNodes>
            0 -1 56 -1.7079956829547882e-02</internalNodes>
          <leafValues>
            1. -2.8348705172538757e-01</leafValues></_></weakClassifiers></_></stages>
  <features>
    <_>
      <rects>
        <_>
          0 2 2 18 -1.</_>
        <_>
          1 2 1 18 2.</_></rects>
      <tilted>0</tilted></_>
    <_>
      <rects>
        <_>
          0 3 2 15 -1.</_>
        <_>
          1 3 1 15 2.</_></rects>
      <tilted>0</tilted></_>
    <_>
      <rects>
        <_>
          0 4 2 11 -1.</_>
        <_>
          1 4 1 11 2.</_></rects>
      <tilted>0</tilted></_>
    <_>
      <rects>
        <_>
          0 4 2 12 -1.</_>
        <_>
          1 4 1 12 2.</_></rects>
      <tilted>0</tilted></_>
    <_>
      <rects>
        <_>
          0 6 2 9 -1.</_>
        <_>
          1 6 1 9 2.</_></rects>
      <tilted>0</tilted></_>
    <_>
      <rects>
        <_>
          1 6 3 9 -1.</_>
        <_>
          2 6 1 9 3.</_></rects>
      <tilted>0</tilted></_>
    <_>
      <rects>
        <_>
          1 7 2 4 -1.</_>
        <_>
          1 7 1 2 2.</_>
        <_>
          2 9 1 2 2.</_></rects>
      <tilted>0</tilted></_>
    <_>
      <rects>
        <_>
          1 7 6 3 -1.</_>
        <_>
          4 7 3 3 2.</_></rects>
      <tilted>0</tilted></_>
    <_>
      <rects>
        <_>
          1 8 4 2 -1.</_>
        <_>
          3 8 2 2 2.</_></rects>
      <tilted>0</tilted></_>
    <_>
      <rects>
        <_>
          1 14 18 1 -1.</_>
        <_>
          7 14 6 1 3.</_></rects>
      <tilted>0</tilted></_>
    <_>
      <rects>
        <_>
          2 0 14 2 -1.</_>
        <_>
          2 1 14 1 2.</_></rects>
      <tilted>0</tilted></_>
    <_>
      <rects>
        <_>
          2 6 2 10 -1.</_>
        <_>
          3 6 1 10 2.</_></rects>
      <tilted>0</tilted></_>
    <_>
      <rects>
        <_>
          2 13 15 3 -1.</_>
        <_>
          2 14 15 1 3.</_></rects>
      <tilted>0</tilted></_>
    <_>
      <rects>
        <_>
          2 14 15 1 -1.</_>
        <_>
          7 14 5 1 3.</_></rects>
      <tilted>0</tilted></_>
    <_>
      <rects>
        <_>
          3 1 1 18 -1.</_>
        <_>
          3 7 1 6 3.</_></rects>
      <tilted>0</tilted></_>
    <_>
      <rects>
        <_>
          3 5 8 1 -1.</_>
        <_>
          7 5 4 1 2.</_></rects>
      <tilted>0</tilted></_>
    <_>
      <rects>
        <_>
          3 5 15 1 -1.</_>
        <_>
          8 5 5 1 3.</_></rects>
      <tilted>0</tilted></_>
    <_>
      <rects>
        <_>
          3 5 17 6 -1.</_>
        <_>
          3 8 17 3 2.</_></rects>
      <tilted>0</tilted></_>
    <_>
      <rects>
        <_>
          3 7 1 2 -1.</_>
        <_>
          3 8 1 1 2.</_></rects>
      <tilted>0</tilted></_>
    <_>
      <rects>
        <_>
          3 8 14 8 -1.</_>
        <_>
          3 12 14 4 2.</_></rects>
      <tilted>0</tilted></_>
    <_>
      <rects>
        <_>
          3 10 2 6 -1.</_>
        <_>
          3 13 2 3 2.</_></rects>
      <tilted>0</tilted></_>
    <_>
      <rects>
        <_>
          3 18 16 2 -1.</_>
        <_>
          3 19 16 1 2.</_></rects>
      <tilted>0</tilted></_>
    <_>
      <rects>
        <_>
          4 4 13 12 -1.</_>
        <_>
          4 8 13 4 3.</_></rects>
      <tilted>0</tilted></_>
    <_>
      <rects>
        <_>
          4 15 7 2 -1.</_>
        <_>
          4 16 7 1 2.</_></rects>
      <tilted>0</tilted></_>
    <_>
      <rects>
        <_>
          4 18 11 2 -1.</_>
        <_>
          4 19 11 1 2.</_></rects>
      <tilted>0</tilted></_>
    <_>
      <rects>
        <_>
          4 18 13 2 -1.</_>
        <_>
          4 19 13 1 2.</_></rects>
      <tilted>0</tilted></_>
    <_>
      <rects>
        <_>
          5 0 13 2 -1.</_>
        <_>
          5 1 13 1 2.</_></rects>
      <tilted>0</tilted></_>
    <_>
      <rects>
        <_>
          5 18 11 2 -1.</_>
        <_>
          5 19 11 1 2.</_></rects>
      <tilted>0</tilted></_>
    <_>
      <rects>
        <_>
          6 3 9 7 -1.</_>
        <_>
          9 3 3 7 3.</_></rects>
      <tilted>0</tilted></_>
    <_>
      <rects>
        <_>
          6 13 10 3 -1.</_>
        <_>
          6 14 10 1 3.</_></rects>
      <tilted>0</tilted></_>
    <_>
      <rects>
        <_>
          6 14 6 3 -1.</_>
        <_>
          8 14 2 3 3.</_></rects>
      <tilted>0</tilted></_>
    <_>
      <rects>
        <_>
          6 16 7 3 -1.</_>
        <_>
          6 17 7 1 3.</_></rects>
      <tilted>0</tilted></_>
    <_>
      <rects>
        <_>
          7 2 7 10 -1.</_>
        <_>
          7 7 7 5 2.</_></rects>
      <tilted>0</tilted></_>
    <_>
      <rects>
        <_>
          7 3 10 6 -1.</_>
        <_>
          7 5 10 2 3.</_></rects>
      <tilted>0</tilted></_>
    <_>
      <rects>
        <_>
          7 5 5 4 -1.</_>
        <_>
          7 7 5 2 2.</_></rects>
      <tilted>0</tilted></_>
    <_>
      <rects>
        <_>
          7 10 5 9 -1.</_>
        <_>
          7 13 5 3 3.</_></rects>
      <tilted>0</tilted></_>
    <_>
      <rects>
        <_>
          7 14 3 1 -1.</_>
        <_>
          8 14 1 1 3.</_></rects>
      <tilted>0</tilted></_>
    <_>
      <rects>
        <_>
          8 1 4 3 -1.</_>
        <_>
          8 2 4 1 3.</_></rects>
      <tilted>0</tilted></_>
    <_>
      <rects>
        <_>
          8 3 5 6 -1.</_>
        <_>
          8 5 5 2 3.</_></rects>
      <tilted>0</tilted></_>
    <_>
      <rects>
        <_>
          8 12 4 6 -1.</_>
        <_>
          8 14 4 2 3.</_></rects>
      <tilted>0</tilted></_>
    <_>
      <rects>
        <_>
          8 14 3 1 -1.</_>
        <_>
          9 14 1 1 3.</_></rects>
      <tilted>0</tilted></_>
    <_>
      <rects>
        <_>
          8 14 7 3 -1.</_>
        <_>
          8 15 7 1 3.</_></rects>
      <tilted>0</tilted></_>
    <_>
      <rects>
        <_>
          9 1 3 9 -1.</_>
        <_>
          9 4 3 3 3.</_></rects>
      <tilted>0</tilted></_>
    <_>
      <rects>
        <_>
          9 4 3 12 -1.</_>
        <_>
          9 8 3 4 3.</_></rects>
      <tilted>0</tilted></_>
    <_>
      <rects>
        <_>
          9 5 2 1 -1.</_>
        <_>
          10 5 1 1 2.</_></rects>
      <tilted>0</tilted></_>
    <_>
      <rects>
        <_>
          9 5 3 1 -1.</_>
        <_>
          10 5 1 1 3.</_></rects>
      <tilted>0</tilted></_>
    <_>
      <rects>
        <_>
          9 14 3 1 -1.</_>
        <_>
          10 14 1 1 3.</_></rects>
      <tilted>0</tilted></_>
    <_>
      <rects>
        <_>
          9 14 3 2 -1.</_>
        <_>
          10 14 1 2 3.</_></rects>
      <tilted>0</tilted></_>
    <_>
      <rects>
        <_>
          10 4 2 2 -1.</_>
        <_>
          11 4 1 2 2.</_></rects>
      <tilted>0</tilted></_>
    <_>
      <rects>
        <_>
          10 4 3 2 -1.</_>
        <_>
          11 4 1 2 3.</_></rects>
      <tilted>0</tilted></_>
    <_>
      <rects>
        <_>
          10 4 6 2 -1.</_>
        <_>
          10 5 6 1 2.</_></rects>
      <tilted>0</tilted></_>
    <_>
      <rects>
        <_>
          10 5 2 1 -1.</_>
        <_>
          11 5 1 1 2.</_></rects>
      <tilted>0</tilted></_>
    <_>
      <rects>
        <_>
          10 5 8 2 -1.</_>
        <_>
          14 5 4 2 2.</_></rects>
      <tilted>0</tilted></_>
    <_>
      <rects>
        <_>
          10 12 4 7 -1.</_>
        <_>
          12 12 2 7 2.</_></rects>
      <tilted>0</tilted></_>
    <_>
      <rects>
        <_>
          10 14 3 2 -1.</_>
        <_>
          11 14 1 2 3.</_></rects>
      <tilted>0</tilted></_>
    <_>
      <rects>
        <_>
          11 5 3 1 -1.</_>
        <_>
          12 5 1 1 3.</_></rects>
      <tilted>0</tilted></_>
    <_>
      <rects>
        <_>
          14 3 4 4 -1.</_>
        <_>
          14 3 2 2 2.</_>
        <_>
          16 5 2 2 2.</_></rects>
      <tilted>0</tilted></_>
    <_>
      <rects>
        <_>
          15 8 4 4 -1.</_>
        <_>
          17 8 2 4 2.</_></rects>
      <tilted>0</tilted></_>
    <_>
      <rects>
        <_>
          16 6 3 5 -1.</_>
        <_>
          17 6 1 5 3.</_></rects>
      <tilted>0</tilted></_>
    <_>
      <rects>
        <_>
          16 8 2 12 -1.</_>
        <_>
          16 8 1 6 2.</_>
        <_>
          17 14 1 6 2.</_></rects>
      <tilted>0</tilted></_>
    <_>
      <rects>
        <_>
          16 8 2 8 -1.</_>
        <_>
          17 8 1 8 2.</_></rects>
      <tilted>0</tilted></_>
    <_>
      <rects>
        <_>
          18 3 2 12 -1.</_>
        <_>
          19 3 1 12 2.</_></rects>
      <tilted>0</tilted></_>
    <_>
      <rects>
        <_>
          18 5 2 10 -1.</_>
        <_>
          19 5 1 10 2.</_></rects>
      <tilted>0</tilted></_>
    <_>
      <rects>
        <_>
          18 7 2 7 -1.</_>
        <_>
          19 7 1 7 2.</_></rects>
      <tilted>0</tilted></_></features></cascade>
</opencv_storage>
